{"type":"NeuralNetwork","sizes":[6,12,3,1],"layers":[{"weights":[],"biases":[]},{"weights":[[-7.346219539642334,3.9240102767944336,-9.186361312866211,-12.896573066711426,0.48875144124031067,-10.181574821472168],[-9.3771390914917,-1.6686545610427856,1.3461838960647583,-1.332288146018982,-7.903985500335693,3.1061408519744873],[4.702596664428711,1.2240954637527466,-0.9048002362251282,-18.39982032775879,-7.398035049438477,1.7861863374710083],[-2.6998918056488037,7.22591495513916,-0.010584081523120403,7.3092570304870605,-18.037748336791992,-18.549213409423828],[-3.986663818359375,12.243114471435547,-4.819223880767822,-2.748507261276245,-7.6750807762146,-4.470146179199219],[-6.942779541015625,-4.077960014343262,-15.051765441894531,8.71597671508789,19.072139739990234,-1.606367588043213],[-21.66795539855957,12.282859802246094,-6.498984336853027,1.8191279172897339,17.05030059814453,-7.731869220733643],[-14.960456848144531,-2.6494619846343994,14.744963645935059,-5.393798351287842,-5.67253303527832,-1.1512945890426636],[-28.606372833251953,-25.98877716064453,17.543373107910156,14.4306058883667,-7.3126606941223145,1.25770902633667],[-7.401803016662598,12.472248077392578,-0.24632224440574646,-1.3593922853469849,-7.205636501312256,10.936097145080566],[-4.218333721160889,21.27730369567871,6.652365207672119,-7.120926856994629,17.63007354736328,-27.370952606201172],[-6.235926151275635,3.419029474258423,-0.3028132915496826,-4.072400093078613,-26.988069534301758,-2.670135498046875]],"biases":[11.593169212341309,4.561213970184326,2.993640661239624,0.5352005362510681,7.1765947341918945,1.990984559059143,13.545144081115723,-5.057821750640869,-1.0846452713012695,-3.2434587478637695,-1.9708441495895386,5.1064453125]},{"weights":[[-8.615076065063477,3.7191555500030518,-8.666478157043457,0.8702644109725952,-18.13387680053711,-16.31313705444336,-7.0565009117126465,17.994606018066406,-9.829054832458496,-5.322122097015381,15.387825012207031,9.862242698669434],[-9.786138534545898,0.22530661523342133,-7.013686656951904,-31.307619094848633,4.626995086669922,-16.625816345214844,33.13322448730469,-5.55747127532959,4.774819850921631,-11.66128921508789,12.458595275878906,25.463062286376953],[-20.920440673828125,-9.612945556640625,27.642797470092773,1.3837076425552368,-10.51154899597168,-5.583481788635254,-23.668031692504883,6.579441070556641,9.197696685791016,6.037111759185791,12.816679000854492,-2.585524797439575]],"biases":[6.384035587310791,-10.789050102233887,3.3820888996124268]},{"weights":[[4.070416450500488,1.13629949092865,2.013646125793457]],"biases":[-1.131735920906067]}],"inputLookup":{"danceability":0,"acousticness":1,"energy":2,"instrumentalness":3,"liveness":4,"valence":5},"inputLookupLength":6,"outputLookup":{"mood":0},"outputLookupLength":1,"options":{"inputSize":0,"outputSize":0,"binaryThresh":0.5,"hiddenLayers":[12,3]},"trainOpts":{"activation":"sigmoid","iterations":20000,"errorThresh":0.002,"log":true,"logPeriod":100,"leakyReluAlpha":0.01,"learningRate":0.4,"momentum":0.75,"callbackPeriod":10,"timeout":"Infinity","beta1":0.9,"beta2":0.999,"epsilon":1e-8}}