{"type":"NeuralNetwork","sizes":[6,12,3,1],"layers":[{"weights":[],"biases":[]},{"weights":[[-10.934343338012695,9.87771224975586,6.984784126281738,-7.326435565948486,-27.435991287231445,1.2378466129302979],[12.143455505371094,3.9779226779937744,3.1103127002716064,-5.57941198348999,-6.368600845336914,-5.823593616485596],[-15.607522010803223,9.985674858093262,-9.373119354248047,4.9183030128479,0.9751027226448059,5.037163257598877],[-5.731289386749268,-12.108652114868164,-5.749339580535889,13.711580276489258,8.887861251831055,-18.70359992980957],[-15.582498550415039,15.407292366027832,-10.650978088378906,0.3786413073539734,4.329684734344482,16.614152908325195],[2.560232400894165,-1.1279610395431519,-4.949426174163818,-5.024736404418945,2.4482340812683105,-36.340145111083984],[1.8069589138031006,5.6571455001831055,-16.681657791137695,14.044267654418945,-10.56292724609375,13.092389106750488],[-3.9697723388671875,-0.15268507599830627,-16.917156219482422,11.61100959777832,1.9691946506500244,-10.421972274780273],[-5.360005855560303,4.814535140991211,0.2697673439979553,0.3243492543697357,-5.566223621368408,0.03002016618847847],[-15.521319389343262,-9.734458923339844,12.000508308410645,-1.627139925956726,0.8326106667518616,3.198681116104126],[-18.02503776550293,7.002978324890137,-15.717337608337402,-9.765104293823242,1.5726749897003174,-9.978025436401367],[11.222843170166016,-7.041607856750488,-3.7917556762695312,-17.35495376586914,-0.27803897857666016,-13.39516544342041]],"biases":[-0.8275591135025024,-3.1748907566070557,9.675835609436035,6.822988986968994,4.788253307342529,7.46835470199585,-4.163146018981934,-2.000593423843384,-0.04494268447160721,-6.383958339691162,18.70673942565918,5.101861476898193]},{"weights":[[23.641347885131836,9.848156929016113,5.606823444366455,12.156554222106934,5.886399269104004,-13.72252368927002,-26.059093475341797,-14.32960319519043,-7.466144561767578,-5.57715368270874,11.668081283569336,1.8857738971710205],[5.217901706695557,-1.6242331266403198,-20.85995101928711,-9.738127708435059,-17.32354164123535,12.260873794555664,12.9612398147583,-6.274258613586426,-4.985869407653809,20.590730667114258,-16.39496421813965,-9.947900772094727],[12.703124046325684,-11.286191940307617,-5.1778106689453125,-9.52297306060791,13.181159019470215,12.27718734741211,9.187090873718262,-3.68402099609375,-13.766827583312988,15.237549781799316,-25.370201110839844,10.751636505126953]],"biases":[0.8530538082122803,11.343244552612305,-0.7537290453910828]},{"weights":[[1.1431829929351807,2.490933418273926,1.2098411321640015]],"biases":[-1.1352518796920776]}],"inputLookup":{"danceability":0,"acousticness":1,"energy":2,"instrumentalness":3,"liveness":4,"valence":5},"inputLookupLength":6,"outputLookup":{"mood":0},"outputLookupLength":1,"options":{"inputSize":0,"outputSize":0,"binaryThresh":0.5,"hiddenLayers":[12,3]},"trainOpts":{"activation":"sigmoid","iterations":20000,"errorThresh":0.004,"log":true,"logPeriod":100,"leakyReluAlpha":0.01,"learningRate":0.4,"momentum":0.6,"callbackPeriod":10,"timeout":"Infinity","beta1":0.9,"beta2":0.999,"epsilon":1e-8}}