{"type":"NeuralNetwork","sizes":[6,12,3,1],"layers":[{"weights":[],"biases":[]},{"weights":[[-9.056918144226074,-0.1646563559770584,22.19850730895996,0.2692350149154663,-29.936298370361328,-7.760922908782959],[-22.88802146911621,-4.596950531005859,14.743237495422363,-20.704145431518555,-0.11181450635194778,1.0301231145858765],[5.338125228881836,3.861219644546509,-17.39720344543457,-8.511213302612305,-9.409696578979492,-13.140668869018555],[-2.7672016620635986,4.236257076263428,-8.979320526123047,3.2339298725128174,-5.018755912780762,4.973239898681641],[-6.486751556396484,4.650251388549805,11.60524845123291,-4.5490031242370605,11.426451683044434,-20.925674438476562],[-11.15511703491211,9.176249504089355,-9.606460571289062,2.566725730895996,18.440866470336914,-4.478950023651123],[-12.049803733825684,-10.593196868896484,-4.034144878387451,-14.709939002990723,3.4754862785339355,11.344904899597168],[-3.747797727584839,10.014863014221191,-4.280256748199463,-14.423659324645996,0.13328415155410767,8.60484504699707],[-7.403963565826416,5.3940229415893555,-0.26873114705085754,3.20821213722229,-17.62383270263672,-7.92119026184082],[4.494606018066406,-3.387092113494873,-24.153427124023438,4.985823631286621,5.080571174621582,-6.869960784912109],[-27.003154754638672,-3.714381456375122,-3.9756081104278564,3.0625338554382324,6.732938289642334,-2.8899011611938477],[-18.698585510253906,2.2687535285949707,-7.319239139556885,-12.166150093078613,-6.306155681610107,-2.270683526992798]],"biases":[-5.866269588470459,-3.48932147026062,11.987333297729492,1.5747127532958984,-4.165302276611328,7.2536749839782715,2.530194044113159,-1.931300163269043,3.1913862228393555,3.5268354415893555,14.999909400939941,13.906347274780273]},{"weights":[[-5.024674892425537,25.83633804321289,-13.775354385375977,-2.019580602645874,23.592687606811523,-2.5685153007507324,1.056980848312378,-16.562049865722656,-8.300769805908203,4.188902378082275,-24.606019973754883,-12.271077156066895],[17.610139846801758,4.617772579193115,18.392593383789062,-6.169137954711914,-19.88649559020996,32.08449172973633,13.28927230834961,7.013685703277588,-26.54493522644043,-21.169967651367188,4.289448261260986,4.633561134338379],[8.430752754211426,1.5866001844406128,-8.672454833984375,-21.839096069335938,10.610063552856445,-22.500410079956055,13.580093383789062,11.117438316345215,0.699759304523468,0.8156847953796387,-3.9456305503845215,-27.108030319213867]],"biases":[1.902880072593689,-15.04780387878418,9.792744636535645]},{"weights":[[2.6779985427856445,1.1423646211624146,1.83486008644104]],"biases":[-1.1328223943710327]}],"inputLookup":{"danceability":0,"acousticness":1,"energy":2,"instrumentalness":3,"liveness":4,"valence":5},"inputLookupLength":6,"outputLookup":{"mood":0},"outputLookupLength":1,"options":{"inputSize":0,"outputSize":0,"binaryThresh":0.5,"hiddenLayers":[12,3]},"trainOpts":{"activation":"sigmoid","iterations":20000,"errorThresh":0.004,"log":true,"logPeriod":100,"leakyReluAlpha":0.01,"learningRate":0.4,"momentum":0.75,"callbackPeriod":10,"timeout":"Infinity","beta1":0.9,"beta2":0.999,"epsilon":1e-8}}